# Format: arch_id; W1_11;W1_12;...;W1_1n;W1_21;...;W1_mn; b1_1;...;b1_m; W2_11;...;W2_pq; b2_1;...;b2_p; W3_11;...;W3_rs; b3_1;...;b3_r; identifier
5_64_64_6;-1.82087E-01;-1.53665E-01;-1.52504E-01;4.55010E-02;-1.44176E-01;-2.16621E-01;1.29873E-01;1.33788E-01;1.04826E-01;2.06216E-01;-2.86599E-01;2.75993E-01;-2.70049E-01;-1.51690E-01;7.07758E-02;-1.51212E-01;-2.65549E-02;-1.00721E-01;1.23149E-01;1.11963E-01;1.33463E-01;-1.91386E-01;2.49953E-01;2.08392E-01;6.82888E-02;-1.02321E-01;2.89824E-01;-1.83627E-01;1.98183E-01;7.98426E-02;-2.80198E-01;-4.25889E-02;2.39163E-01;-2.54228E-01;-2.13046E-01;-1.67849E-01;2.71900E-01;2.92438E-01;-8.03713E-02;1.80961E-01;-2.37708E-01;1.89804E-01;-4.23721E-02;1.74995E-01;2.27900E-01;1.15232E-01;2.60924E-01;-3.44622E-02;2.87328E-02;5.48440E-02;-4.23979E-02;-2.39576E-01;1.93355E-01;5.81955E-02;1.29095E-02;4.21125E-02;7.87251E-02;-2.15556E-01;-1.80633E-01;2.68224E-01;-1.50208E-01;-8.72335E-02;2.53150E-01;8.36082E-02;-9.97851E-02;-1.65327E-02;2.09228E-01;2.03976E-01;-9.35138E-02;-1.09913E-01;-7.58857E-02;6.60538E-02;-1.72355E-01;1.93799E-01;2.06302E-01;3.71481E-02;2.41166E-01;2.20572E-01;-1.84446E-01;-2.31880E-01;1.35088E-01;-2.75158E-01;-4.86388E-02;2.18302E-01;2.50021E-01;-2.11837E-01;-1.73498E-01;1.54446E-01;1.76146E-01;-2.92283E-01;6.76075E-03;-9.15539E-02;1.50104E-01;-9.82555E-02;-2.21454E-01;-2.55447E-01;-1.16304E-01;2.64472E-01;-1.94664E-02;-1.54761E-01;-1.85493E-01;-4.06270E-02;-8.48528E-02;-2.66637E-01;1.48743E-01;1.65438E-02;-2.48529E-01;-3.65546E-02;-2.81049E-01;-8.82426E-02;-2.81803E-01;1.77522E-01;-2.38479E-01;1.48194E-01;1.27722E-01;-9.74822E-02;-2.67525E-01;1.80812E-01;-3.79489E-02;-2.42039E-01;7.43703E-02;2.66901E-01;8.83262E-02;7.02216E-02;-1.63783E-01;2.13999E-01;-1.68895E-02;8.26287E-02;6.47763E-02;2.78420E-01;7.60271E-02;-9.74663E-02;-2.07534E-01;-1.49221E-01;2.39755E-01;2.37898E-01;-5.50879E-02;2.93995E-01;1.85740E-01;1.28465E-01;-1.38606E-01;-7.15182E-02;-2.19044E-01;2.89840E-01;1.92810E-01;-3.68944E-03;4.51397E-02;4.25175E-03;2.41637E-01;-9.80733E-02;-1.15146E-01;-1.58232E-02;-1.19971E-01;1.46737E-02;1.09558E-01;2.41495E-01;-3.83278E-02;5.89795E-02;2.53849E-01;-2.92927E-01;1.18461E-01;2.81096E-01;1.37285E-02;9.94694E-02;-4.61139E-02;-3.84298E-02;6.49240E-02;-1.40854E-01;-2.27240E-01;-1.67071E-01;-7.69553E-03;-2.78538E-01;-2.22287E-01;-2.19496E-01;7.19011E-02;-2.23403E-01;1.79526E-01;-3.77318E-02;5.23410E-02;1.10100E-01;1.80023E-01;-9.96407E-02;1.20294E-01;-2.50010E-01;5.22748E-02;2.90430E-01;-2.18877E-01;-1.36629E-01;-2.14207E-01;2.16102E-01;-2.06164E-01;1.54545E-01;-7.76187E-02;-9.48590E-02;7.64268E-02;2.64792E-01;3.22627E-02;-1.14847E-01;2.61589E-01;1.93166E-01;-1.03371E-01;9.42867E-02;2.28748E-02;4.12201E-02;5.98851E-02;-1.13410E-01;-9.60114E-02;-2.77495E-01;1.80999E-01;-2.45168E-01;2.49627E-01;-1.80921E-01;2.92699E-01;5.30701E-02;2.29457E-01;-1.93844E-01;-1.08429E-01;2.43465E-01;5.00238E-02;-2.42111E-01;9.42120E-03;9.38961E-02;-2.13112E-01;-2.67346E-01;3.42074E-03;2.84911E-01;1.92589E-01;1.01840E-02;8.35871E-02;-2.04676E-02;2.04257E-01;2.91496E-01;-4.67908E-02;1.92635E-01;2.56970E-01;-5.16331E-02;-6.75764E-02;2.22354E-01;-4.23253E-02;7.28492E-02;8.12172E-02;3.92335E-02;6.60808E-02;1.66237E-01;6.15952E-02;1.41296E-01;2.72756E-01;-2.52342E-02;1.35509E-01;6.06461E-02;8.99655E-03;-7.81450E-03;1.76654E-01;1.53189E-01;1.05051E-01;1.50734E-01;2.29325E-01;1.52701E-01;1.74474E-01;-3.98030E-02;-2.09615E-01;-1.13700E-01;8.22160E-02;-4.39209E-02;-2.43757E-01;1.63552E-01;-9.78677E-02;-1.36162E-01;5.77856E-02;2.17790E-02;2.19282E-01;2.24215E-01;-6.48825E-02;-1.17335E-02;9.68862E-02;2.13828E-01;2.06750E-01;-1.24869E-01;1.21034E-01;-2.73409E-01;3.39528E-02;1.96927E-01;-1.22519E-02;-9.68440E-02;-4.64184E-02;8.17514E-02;1.58352E-01;1.67556E-01;1.80800E-01;2.28553E-01;1.55635E-01;6.67081E-02;-7.73975E-02;-4.26355E-03;2.49490E-01;9.62683E-02;1.13306E-01;-1.32307E-01;-2.47214E-02;2.72149E-01;1.36290E-01;-1.52992E-01;-2.15089E-02;2.28468E-01;-2.56161E-01;-2.22125E-01;-1.12772E-01;-1.10094E-01;5.10506E-02;1.67003E-01;-2.80244E-01;-1.52505E-01;-4.31828E-02;-2.62195E-01;8.86611E-02;-9.13695E-02;1.28843E-01;1.34267E-02;-2.38294E-02;6.82517E-02;0.00000E+00;0.00000E+00;0.00000E+00;0.00000E+00;0.00000E+00;0.00000E+00;0.00000E+00;0.00000E+00;0.00000E+00;0.00000E+00;0.00000E+00;0.00000E+00;0.00000E+00;0.00000E+00;0.00000E+00;0.00000E+00;0.00000E+00;0.00000E+00;0.00000E+00;0.00000E+00;0.00000E+00;0.00000E+00;0.00000E+00;0.00000E+00;0.00000E+00;0.00000E+00;0.00000E+00;0.00000E+00;0.00000E+00;0.00000E+00;0.00000E+00;0.00000E+00;0.00000E+00;0.00000E+00;0.00000E+00;0.00000E+00;0.00000E+00;0.00000E+00;0.00000E+00;0.00000E+00;0.00000E+00;0.00000E+00;0.00000E+00;0.00000E+00;0.00000E+00;0.00000E+00;0.00000E+00;0.00000E+00;0.00000E+00;0.00000E+00;0.00000E+00;0.00000E+00;0.00000E+00;0.00000E+00;0.00000E+00;0.00000E+00;0.00000E+00;0.00000E+00;0.00000E+00;0.00000E+00;0.00000E+00;0.00000E+00;0.00000E+00;0.00000E+00;-1.37621E-01;7.17552E-02;-1.39201E-01;1.48466E-01;4.61675E-02;-4.73487E-02;2.12350E-03;2.09884E-01;4.30861E-02;-1.40972E-01;-1.62363E-01;-1.13837E-01;1.33179E-01;5.20919E-02;-9.35034E-03;2.14086E-01;1.15590E-01;1.92541E-01;1.38198E-01;-1.70489E-01;-5.97243E-02;-6.63947E-02;1.20750E-01;1.63561E-01;1.56355E-01;1.55479E-01;-3.42343E-02;-4.07991E-02;1.74704E-01;1.40458E-01;-5.58930E-02;-2.39100E-03;1.98906E-01;-1.73900E-02;-1.70257E-01;2.11250E-01;1.80298E-01;1.69462E-01;-1.06834E-01;-4.07077E-02;1.10387E-01;-2.07151E-01;-6.11507E-02;1.02217E-02;-1.50148E-01;-2.12658E-01;-1.37813E-01;1.47194E-01;1.45815E-01;-7.64653E-02;-1.12948E-01;-1.05712E-01;7.47953E-02;1.11480E-01;-2.08460E-01;-8.19823E-02;2.03229E-01;-2.13315E-01;-1.62635E-01;-7.64529E-02;-1.19310E-01;6.70269E-04;-3.59499E-02;-1.72421E-01;-4.30330E-02;8.31512E-02;1.80670E-01;-1.60078E-01;1.03684E-01;-8.14895E-02;-4.73685E-02;-1.20788E-01;1.62618E-01;-1.59659E-02;-2.12221E-01;1.38810E-01;1.58675E-01;-1.99335E-01;-8.37253E-02;-1.50211E-02;3.15766E-02;-4.26748E-02;-2.88449E-02;1.16866E-01;1.38920E-01;6.65103E-03;1.78455E-01;2.15219E-01;3.88329E-02;4.98562E-02;8.08392E-02;-1.61457E-02;-1.50609E-03;-1.63448E-01;1.22568E-01;1.82314E-01;1.77409E-01;1.34814E-01;-2.16163E-01;-1.99790E-01;-5.05042E-02;1.55820E-01;6.83567E-02;-1.90364E-01;1.03443E-01;-9.31425E-02;9.90024E-03;1.86703E-01;5.74897E-03;-1.77467E-01;1.89703E-01;-2.20776E-03;-1.90290E-01;1.70369E-01;-2.43468E-02;5.66861E-02;1.45522E-02;-1.01557E-01;1.04887E-01;8.73514E-02;-7.54182E-03;-1.71968E-01;-5.81875E-02;2.09412E-02;1.38686E-01;-2.47910E-02;1.28108E-01;-1.94531E-01;-9.40366E-02;-1.92230E-01;1.62013E-01;-5.71870E-02;1.13447E-01;-8.20892E-02;-1.08816E-01;1.28136E-01;1.01637E-01;1.96751E-01;-4.47132E-02;1.31867E-01;-1.10125E-01;-1.99388E-01;3.19257E-02;-1.75630E-01;-1.25181E-01;1.90884E-01;-1.50298E-01;1.93393E-01;7.01870E-02;-1.85846E-01;-2.86865E-02;2.48764E-02;9.09468E-02;-1.95499E-01;1.72300E-01;8.14923E-02;1.28609E-01;-6.24707E-02;9.87991E-02;4.28415E-02;2.15652E-01;-3.68237E-02;-1.67384E-01;1.81925E-01;-5.31817E-02;1.77829E-01;1.99414E-01;1.03411E-01;6.83112E-02;3.87479E-02;1.72152E-01;1.14457E-01;1.50486E-01;-7.29646E-02;2.09382E-01;1.79715E-01;2.02760E-01;-2.01864E-01;-3.27708E-02;1.41139E-01;1.50742E-01;1.15204E-01;1.45336E-01;-3.31965E-02;-1.16980E-01;8.87062E-02;1.04629E-01;-9.42894E-02;-2.15925E-01;1.57758E-01;-1.68288E-01;1.19688E-01;-2.21317E-03;-1.83774E-01;2.08412E-01;1.26905E-01;-1.72093E-01;2.25635E-02;-2.08676E-01;-1.39525E-01;1.75646E-02;-1.21398E-01;1.78066E-01;-1.61617E-01;1.05848E-02;-2.11025E-01;-1.73519E-01;1.56100E-01;1.72426E-01;-4.83422E-02;-7.29671E-02;-1.94539E-01;1.26142E-01;-1.23512E-01;1.33885E-01;6.11788E-02;-4.74858E-02;6.31145E-02;1.43703E-01;-4.71832E-02;-2.16373E-01;-5.64293E-02;-2.13349E-01;2.11708E-02;-7.91080E-02;1.87685E-01;1.27896E-01;5.98380E-02;-2.59325E-02;1.85937E-01;4.33635E-02;-6.32585E-02;6.86150E-02;1.22463E-01;-1.71449E-01;1.54580E-01;-8.15900E-02;-6.48445E-03;-3.82507E-02;6.56975E-02;-7.51080E-02;1.42189E-01;1.44878E-01;-2.04503E-01;2.58559E-02;1.75783E-02;-2.14314E-01;-2.16318E-01;1.40284E-01;-6.40153E-02;1.32274E-01;-9.24884E-02;-1.09654E-01;9.63437E-02;-1.27624E-02;1.47057E-02;3.33257E-02;-2.56875E-02;-2.06084E-02;3.37667E-02;-1.16298E-01;-1.04647E-01;3.52958E-02;2.97720E-02;-3.02232E-02;1.70882E-01;-9.49134E-02;-8.58945E-02;1.40615E-01;-1.21572E-01;-2.10558E-01;2.38348E-02;5.20638E-02;1.58797E-01;-1.56000E-01;-1.97383E-01;3.95597E-02;-1.19055E-01;1.01225E-01;4.19226E-02;-1.93453E-01;1.64033E-01;-1.38132E-01;-1.36177E-01;-1.57656E-01;-9.25674E-02;4.42935E-02;9.41776E-02;-1.69483E-02;5.24529E-02;1.38887E-01;-1.21388E-01;1.96025E-01;-1.74793E-01;-1.79776E-01;2.24250E-02;-6.60267E-02;3.65382E-02;-1.95339E-01;5.39357E-02;-3.44228E-02;-6.15042E-02;-1.27268E-01;2.03972E-01;-2.13264E-01;1.89128E-01;-1.77181E-01;-7.63582E-03;9.48801E-02;-1.90509E-01;1.69600E-01;1.00431E-01;8.56888E-02;9.91348E-02;-1.23523E-01;1.42970E-01;-6.58597E-02;-1.18717E-01;1.08605E-02;-1.24450E-02;8.99274E-02;-1.16757E-01;-5.10233E-02;9.94703E-02;1.57111E-01;6.50503E-02;-1.05679E-01;-1.30869E-01;-4.68356E-02;-1.46301E-01;1.58514E-01;1.02849E-01;-1.86167E-01;2.11228E-01;1.58921E-01;2.00594E-01;1.93423E-01;1.75423E-01;8.54722E-02;-1.90035E-01;-1.33192E-01;-1.51043E-01;2.11380E-01;1.27159E-02;-1.29242E-01;1.21617E-01;-1.09537E-01;-4.12886E-03;-1.12357E-01;-6.14987E-02;2.13702E-01;-7.55864E-02;2.60670E-02;-1.13456E-01;3.33735E-02;-5.28749E-02;-1.22809E-01;1.92308E-01;-1.79587E-01;-5.02670E-02;-2.03257E-01;1.34026E-01;9.95356E-03;-5.55516E-02;4.32401E-02;1.93335E-01;1.48284E-01;1.33119E-01;4.83209E-02;-9.33920E-02;2.43674E-02;1.11398E-01;-9.85251E-02;-1.16344E-01;2.04270E-01;2.13310E-01;2.45643E-02;-3.29955E-02;1.90118E-01;4.42072E-02;1.20264E-01;-1.15083E-02;-8.78509E-02;2.03879E-01;1.59982E-01;5.01569E-02;9.67375E-02;-1.87794E-01;-3.65869E-02;6.55172E-02;-1.01703E-01;-1.76947E-01;1.52254E-01;-1.60026E-01;-9.38701E-02;7.18318E-02;-3.96765E-02;1.86380E-01;-5.51375E-02;1.76874E-01;1.30507E-01;-1.38627E-02;1.19589E-01;2.03558E-01;-2.03658E-01;-1.25206E-01;1.00344E-01;-2.83294E-02;-8.94061E-02;-1.78501E-01;-2.15954E-02;-1.60695E-01;-1.40281E-02;-2.14744E-01;-8.26275E-02;6.09816E-02;1.31159E-01;-8.81433E-02;1.73484E-02;7.87351E-02;2.09709E-01;-9.81903E-02;-2.42682E-03;-1.22722E-01;-2.15331E-01;1.68525E-01;-1.58718E-01;1.93077E-01;-7.59630E-02;-1.73176E-01;9.17927E-02;2.05412E-01;-3.42474E-02;9.38489E-02;-1.42226E-01;1.72857E-01;-1.13217E-01;-1.57990E-01;5.63855E-02;-1.84616E-01;-6.33073E-02;-6.08090E-02;-5.58256E-03;8.82706E-02;1.66532E-01;-3.58051E-02;-1.93806E-01;-7.11080E-02;-1.85222E-01;-1.68533E-01;-7.58227E-02;1.72755E-01;1.98810E-01;2.28370E-02;3.73268E-03;-1.00657E-01;2.03211E-02;9.39242E-02;-2.37994E-02;-1.37921E-01;1.79274E-01;2.11001E-01;1.88232E-01;1.32489E-01;9.79065E-02;-1.07894E-01;1.99125E-01;1.75011E-01;1.21489E-01;1.36839E-01;6.66712E-02;-6.93182E-02;-1.77183E-01;-8.40068E-02;1.34087E-02;-1.69447E-01;1.92886E-01;2.21240E-02;1.11703E-01;-9.33532E-02;1.66464E-01;1.56826E-01;6.17503E-02;-8.28860E-02;-2.24923E-02;1.92815E-01;-1.33525E-01;-1.38306E-01;-5.06745E-02;-1.42383E-01;-2.05539E-02;8.69416E-03;-1.42863E-01;2.09878E-01;-1.51511E-01;1.64961E-01;-1.14173E-02;4.79092E-02;1.94367E-01;-1.99454E-01;-1.50444E-01;-1.04766E-01;2.50751E-02;-8.61423E-02;4.03271E-02;-1.30767E-01;-1.30400E-01;-8.99455E-02;1.60806E-01;-1.12307E-01;-9.01381E-02;2.96951E-02;-2.92372E-02;4.31995E-02;-9.63064E-03;1.21330E-01;1.57057E-01;-1.63777E-03;1.25520E-01;-5.76406E-02;5.92493E-02;2.66642E-02;2.08435E-01;2.04917E-01;-1.30823E-03;4.04439E-02;1.39123E-01;-1.30349E-01;-9.63610E-02;-1.20864E-02;-1.63119E-01;1.04614E-01;1.72122E-01;9.04366E-02;1.55751E-01;-1.38723E-01;-5.37649E-02;-9.77661E-03;1.05306E-01;1.57269E-01;-1.73809E-01;-1.39558E-01;1.23623E-01;-1.33991E-01;-2.14323E-01;1.78683E-01;1.70316E-01;-1.94740E-01;1.46993E-01;1.71245E-01;9.99127E-02;-1.61003E-02;5.14650E-02;1.57372E-01;1.31669E-01;1.41486E-01;1.62628E-01;9.12663E-02;-4.25956E-02;2.68761E-02;-2.08537E-01;2.73618E-02;1.82610E-01;3.23416E-02;2.13986E-01;-9.38681E-02;-9.42001E-02;-9.24129E-02;6.17390E-02;-2.00148E-01;2.04165E-01;1.38105E-01;1.09142E-01;-1.65205E-01;-2.07070E-01;1.11019E-01;1.78036E-01;-6.55127E-02;9.46264E-02;9.99873E-02;-1.79094E-01;-4.01468E-02;-4.73806E-02;1.86639E-01;1.66794E-01;-4.92842E-02;-1.94241E-01;-1.69268E-01;1.22804E-01;-1.94765E-01;-4.12134E-02;-1.76590E-01;-1.54066E-01;1.96916E-01;1.88118E-01;2.12112E-01;-1.41901E-01;-2.06753E-01;-5.61579E-02;-3.48101E-02;-1.63087E-01;-1.69466E-01;-5.93972E-02;-1.15190E-01;1.58886E-02;-9.06021E-02;7.17070E-02;-5.77563E-02;1.99037E-01;-1.05757E-02;3.07028E-02;-1.38881E-01;2.14847E-01;-1.13299E-01;2.74225E-02;1.97966E-02;-2.03034E-01;2.06228E-01;3.50634E-02;5.92308E-02;9.59046E-02;5.65239E-02;1.56811E-01;1.84061E-01;-2.05053E-01;-4.61525E-02;1.93216E-01;-1.42023E-01;-1.15956E-01;1.60868E-01;1.77219E-01;1.52028E-01;-1.45445E-01;-9.88422E-02;2.31076E-02;6.30451E-02;-1.68005E-01;1.40007E-01;1.10021E-01;-1.19829E-01;-1.60677E-01;-7.36549E-02;-1.59134E-01;1.55310E-01;1.78951E-01;-5.77719E-02;1.09730E-01;1.63186E-01;-1.86131E-01;-1.60798E-01;-1.87988E-01;1.75017E-01;-1.07937E-01;-8.72370E-02;-1.63453E-02;-8.64649E-02;2.08757E-01;-1.45226E-01;4.50890E-02;1.24124E-01;-1.78892E-01;3.50750E-02;4.53487E-02;-3.17439E-02;-1.78749E-01;1.48926E-01;-1.03018E-01;-1.69384E-01;-1.59943E-01;8.59328E-02;1.93278E-01;1.83054E-01;-1.47495E-01;-1.55205E-01;1.88340E-01;-1.67400E-01;2.14894E-02;4.02456E-02;2.70323E-02;-1.87715E-01;1.84759E-01;-6.59776E-03;-2.01224E-01;8.93659E-02;1.06460E-01;-8.49671E-02;1.66189E-01;4.45929E-02;1.96789E-01;8.91968E-02;-4.95498E-03;-1.57427E-01;1.66604E-01;-1.26168E-01;5.82181E-02;-1.17362E-01;5.25421E-02;2.81148E-02;-9.93985E-02;-1.00591E-01;-1.56035E-01;-1.72037E-01;-2.62561E-03;-3.80801E-02;1.44561E-01;1.89788E-01;1.99935E-01;-9.44685E-02;-1.87371E-02;2.08731E-01;1.17787E-01;1.28353E-01;1.18338E-01;-9.61499E-02;-1.30475E-01;-1.75048E-01;-1.33735E-01;1.35034E-01;1.89083E-01;-1.64926E-01;-2.17240E-03;4.25418E-02;1.42727E-01;-1.76097E-01;-6.88287E-02;1.59293E-01;-1.47328E-01;-6.19316E-03;-6.14439E-02;2.06381E-01;-7.19174E-02;-1.61078E-01;7.87302E-02;-5.52726E-02;-3.54694E-02;4.97718E-02;-1.64385E-01;5.46288E-02;1.42159E-01;-1.43757E-01;-8.14212E-02;-1.66437E-01;-4.02320E-02;-6.65438E-02;-1.55106E-01;1.25025E-01;-1.20900E-01;-1.80251E-01;-1.86652E-01;-1.29238E-02;9.01317E-02;7.06115E-02;-9.65684E-02;9.32603E-02;-2.11352E-02;-1.00322E-01;2.55533E-02;8.63120E-04;-1.43208E-01;-1.28780E-01;1.85134E-01;-3.02511E-02;1.93229E-01;8.69579E-02;9.13868E-02;1.69098E-01;-2.94480E-02;-1.90958E-01;1.87801E-01;1.47732E-01;1.02926E-01;1.28077E-01;5.99586E-02;-1.56815E-01;-1.24724E-01;-2.04299E-01;-1.35639E-01;-6.42768E-02;-2.54464E-02;2.07034E-01;3.92589E-03;1.68703E-02;-1.69514E-01;7.80762E-02;7.92622E-02;1.88885E-01;9.21509E-02;1.42628E-01;2.09461E-01;8.89308E-02;-5.55183E-02;-7.36960E-02;-1.32324E-01;-2.07221E-01;-3.77100E-02;8.64080E-02;1.83976E-01;-1.11515E-01;-2.13872E-01;1.50601E-01;1.73847E-01;7.36167E-03;-9.99903E-02;6.80594E-02;-6.86749E-02;1.99383E-01;-6.05423E-02;-1.68170E-01;-1.63476E-01;-1.09621E-01;1.00677E-01;1.18340E-01;1.17442E-01;-1.03294E-01;5.56061E-02;-1.78154E-01;-1.68237E-01;1.92313E-01;-7.49546E-03;1.89987E-01;-1.03045E-01;2.86305E-03;1.44757E-01;-1.80693E-01;2.16171E-01;9.64910E-02;-1.03283E-01;7.93695E-03;8.28876E-02;-7.91233E-02;1.05843E-02;-5.19410E-02;1.95373E-01;1.17517E-03;5.78080E-02;7.96185E-02;-1.31303E-02;-1.22277E-01;-2.14008E-01;-1.90177E-01;2.72162E-02;-1.26485E-01;-1.59180E-01;-9.97813E-02;-1.16494E-01;-5.40777E-02;1.71538E-01;5.95445E-02;1.87691E-02;1.63401E-01;9.01997E-02;-1.81600E-01;-8.51433E-02;-1.65245E-01;1.24442E-02;9.52779E-02;1.12031E-01;7.73425E-03;-1.27100E-01;-1.28648E-01;-1.23263E-01;-8.40339E-03;2.03726E-01;5.88248E-02;-6.47164E-02;-1.64659E-01;-1.24307E-01;2.03198E-03;-1.52119E-01;2.01408E-01;4.78792E-02;7.88536E-02;-3.99694E-04;7.03465E-02;3.78157E-02;3.47660E-03;-9.38575E-03;2.20114E-02;1.05439E-01;-6.36208E-02;-1.67644E-01;-1.57385E-01;-1.40200E-01;2.44027E-02;-1.53440E-01;-1.58106E-01;-1.83733E-01;-8.47949E-02;1.59161E-01;-1.57653E-02;-1.36252E-01;-1.58407E-01;-1.88632E-01;-1.37422E-01;3.12281E-02;-1.49368E-01;1.81749E-01;1.73067E-01;1.26584E-01;1.05853E-01;1.80244E-01;7.12442E-03;-8.03514E-03;2.04565E-01;-1.52217E-01;-9.15622E-02;7.86439E-02;-9.28066E-02;1.07825E-01;8.36284E-02;1.23384E-01;7.14985E-02;-7.07034E-02;2.84236E-02;2.01220E-01;1.21315E-01;-4.95135E-02;-1.36587E-01;2.15567E-01;-8.70749E-02;-1.55910E-01;-1.62967E-01;2.01105E-01;1.96471E-01;1.59668E-02;4.69138E-02;-7.19460E-02;1.04288E-01;-1.23822E-01;-7.04576E-02;-2.69824E-02;-4.04122E-02;-1.18052E-01;-6.64493E-02;1.78773E-01;-1.51532E-01;-3.36235E-02;-7.51977E-02;-3.07842E-02;-1.27426E-01;2.13430E-01;-1.24812E-01;1.21470E-01;1.67389E-01;-1.42333E-01;1.87739E-01;-1.07954E-01;-1.00467E-01;1.97360E-01;1.78179E-01;-4.23509E-02;6.18673E-02;-1.39519E-01;-2.08784E-01;3.87847E-02;1.87415E-01;1.58947E-02;1.60076E-02;-1.82038E-01;-3.84311E-02;-8.11969E-02;-4.52410E-02;-1.93025E-01;-6.36753E-02;1.81693E-01;4.81453E-02;-1.81825E-01;-1.92232E-01;3.79880E-02;1.70395E-03;1.94125E-01;-1.37038E-01;1.19197E-01;1.73347E-01;-1.51590E-01;-1.11138E-01;-1.64571E-01;-1.81690E-01;-1.45601E-01;8.90879E-02;5.32126E-02;1.62908E-01;1.33364E-01;1.66482E-01;-6.60584E-02;1.36960E-01;1.95924E-01;1.79992E-01;-1.43611E-01;-1.12250E-01;-1.29628E-01;-6.72516E-02;5.89666E-03;-2.02728E-02;8.68469E-02;-6.01203E-02;-3.95505E-02;1.74628E-01;-1.44314E-01;2.32719E-02;8.54146E-03;-7.62472E-02;7.32259E-02;-1.30104E-02;2.05797E-01;1.04932E-01;1.08999E-03;1.49534E-01;-6.64978E-03;-1.99975E-01;1.43824E-01;-2.14859E-01;-1.08292E-01;1.05989E-01;-1.86224E-01;-1.41329E-01;-1.79896E-01;5.67592E-02;-3.80564E-02;-7.19198E-02;3.63585E-02;-1.66394E-01;1.30498E-01;5.09217E-02;-1.79478E-01;-1.28983E-01;7.09587E-02;-1.44455E-01;-1.70235E-01;-1.19745E-01;1.11672E-01;1.04553E-01;2.24175E-02;5.94535E-02;4.19995E-02;-1.96216E-01;4.66615E-02;-1.75625E-01;-2.08629E-01;-3.23266E-02;9.89867E-02;1.36630E-01;-3.51171E-02;-6.82602E-02;-9.71143E-02;1.90366E-01;-1.80373E-01;4.43634E-02;1.65334E-01;-1.60847E-01;1.17481E-01;2.04013E-01;-1.14529E-01;1.63167E-02;2.09376E-01;-2.90482E-02;2.04232E-01;-1.22811E-01;1.76294E-01;7.63973E-02;1.47845E-01;-1.95856E-01;4.08168E-02;9.63002E-04;-1.45897E-01;-1.40668E-01;3.51511E-03;-7.08085E-03;-3.64321E-02;1.27515E-01;-1.86485E-01;-2.06782E-01;-2.26617E-02;-8.95275E-02;-1.86918E-01;-1.38979E-01;-8.31789E-02;-2.09408E-02;1.31378E-01;2.08091E-01;1.35017E-01;-8.22708E-02;-6.44240E-02;-2.35605E-02;1.98584E-02;-1.87593E-01;-1.49430E-01;-6.24839E-02;-1.44256E-01;9.08105E-02;-3.74712E-02;-1.66905E-01;2.00406E-01;1.25882E-01;-1.35098E-01;1.52849E-01;-1.68806E-01;-1.80413E-02;-6.59641E-02;1.67806E-01;-1.25295E-02;-8.94800E-02;1.19198E-01;6.61401E-03;9.46365E-03;-2.16384E-01;-1.98393E-01;-1.91178E-01;-2.70422E-02;-2.14289E-01;1.09065E-01;1.72508E-01;-3.59961E-03;-2.22952E-02;1.40994E-01;-5.98532E-02;1.77469E-01;1.28222E-01;-5.29397E-02;-1.93121E-01;7.93034E-02;4.73119E-02;1.65726E-01;1.03960E-02;3.23848E-02;1.88569E-01;1.41410E-01;1.71508E-01;1.79733E-01;1.14889E-01;1.02481E-01;-7.62610E-02;1.34940E-01;-2.09041E-02;-1.50873E-01;-4.88326E-02;-1.38891E-01;-2.46888E-02;-7.28611E-02;-1.66338E-01;1.42496E-01;6.62325E-02;1.42642E-01;-2.24659E-02;1.11086E-01;-1.59593E-01;1.12117E-01;-1.39210E-01;1.16916E-01;6.00059E-02;1.20263E-01;-1.79730E-01;1.47633E-01;-1.30186E-01;-2.16317E-01;-1.00983E-01;8.58188E-02;5.11909E-02;1.37096E-01;-2.05846E-01;-4.33730E-03;-9.06921E-02;5.86762E-02;-8.76488E-02;-4.04585E-02;-1.08727E-01;7.53108E-02;-1.05031E-01;-3.26781E-02;-1.40538E-01;-3.93478E-02;-6.99309E-02;-1.77211E-02;-2.09410E-01;-2.04254E-01;-1.03037E-01;-1.03373E-01;-1.93266E-02;-7.18525E-02;1.78426E-01;-1.88207E-01;-3.34975E-02;-1.00691E-01;4.21728E-02;2.83240E-02;7.02232E-02;-7.14823E-02;-2.07390E-01;-6.96439E-02;1.92692E-02;1.96825E-01;-1.90563E-01;-1.33264E-01;-1.90575E-01;7.68375E-02;-5.24431E-02;1.05838E-01;3.36892E-02;1.02642E-01;-1.09811E-01;-1.85817E-01;-1.22634E-01;1.37729E-01;-3.91051E-02;-1.40885E-01;-1.50729E-01;1.01084E-01;-1.18452E-01;-4.24653E-02;1.50777E-01;2.12739E-01;-6.35392E-02;-3.08362E-03;-1.89858E-01;2.58153E-02;-1.93557E-01;-1.54235E-01;4.74557E-02;1.84307E-01;-1.10345E-01;4.45468E-02;1.84690E-01;-1.25746E-02;-2.07004E-01;-5.44761E-02;-2.23292E-02;-2.08824E-01;4.90172E-02;1.87144E-01;-1.90461E-01;-1.14951E-01;-1.45712E-01;9.30934E-02;-1.97588E-01;-1.33338E-01;6.96098E-02;4.63138E-02;1.30592E-01;-2.95292E-02;-1.98481E-01;4.63120E-02;8.79832E-02;-3.89668E-03;1.00161E-01;3.11274E-02;1.68796E-02;-2.74049E-02;6.32536E-02;-1.51518E-01;-1.02777E-01;-2.13348E-01;-1.51343E-02;1.09805E-01;-1.93693E-01;-5.72181E-02;8.45512E-02;-1.48189E-01;3.83735E-02;-5.96144E-02;-1.57286E-01;1.52680E-01;-1.75534E-01;-1.90972E-01;1.60147E-01;1.58212E-01;2.01059E-01;1.29067E-01;-1.12596E-03;1.82691E-01;-5.61417E-02;2.02199E-01;1.20408E-01;-1.30199E-01;1.78620E-01;3.80594E-02;8.33195E-02;1.84091E-01;-8.43640E-02;8.49246E-02;1.17289E-01;-1.33086E-01;2.27538E-03;7.83080E-02;-1.73080E-01;-1.84491E-03;1.30814E-01;1.84780E-01;-1.79901E-01;-1.57367E-01;-6.53006E-02;1.32078E-01;-1.36515E-01;-1.82532E-01;-5.08751E-02;-1.71694E-01;-2.04718E-01;-1.04243E-01;1.70662E-02;1.62213E-01;2.18764E-02;-3.64493E-03;-2.07185E-01;-9.86679E-02;1.63206E-02;-8.19525E-02;-1.71794E-02;-5.85255E-02;-1.62185E-01;1.27898E-01;-7.10852E-02;2.07115E-01;-2.13260E-01;5.81194E-02;1.09915E-01;-1.93336E-01;1.00437E-01;8.59901E-02;1.50419E-01;-8.88169E-03;-1.21643E-01;-7.84788E-02;6.39030E-02;2.03734E-01;1.56315E-01;9.88225E-02;2.05414E-01;6.79117E-03;-6.99107E-02;2.08800E-01;4.24915E-02;-1.49366E-01;1.58724E-01;2.76259E-02;1.38334E-01;-3.99909E-02;8.14929E-02;-5.19309E-02;1.06118E-01;7.53403E-02;-1.85073E-01;-1.66736E-01;-7.23290E-02;1.19587E-01;-1.36968E-01;-1.77672E-01;9.77170E-02;1.78117E-01;8.38718E-02;-1.63066E-01;-1.42675E-01;-1.87158E-01;2.05989E-01;-9.30141E-02;4.37895E-02;-1.83863E-01;1.17228E-01;1.27991E-01;1.59521E-01;4.09047E-02;1.10654E-01;2.06121E-02;1.20506E-01;1.78229E-01;1.87678E-01;-1.67893E-01;4.22335E-02;3.27933E-02;9.69610E-02;-1.26211E-01;-1.97309E-01;2.01639E-01;-1.27929E-01;-4.37914E-02;5.06555E-03;5.08075E-02;-6.31462E-02;1.34418E-01;1.72194E-01;3.30834E-02;-4.66706E-02;9.67052E-02;1.90725E-02;1.20980E-01;-2.50447E-02;-5.55464E-02;1.94174E-01;-6.90838E-02;1.17173E-01;1.41774E-01;-1.61447E-01;1.97833E-01;1.28006E-01;1.86939E-02;-3.28736E-02;6.59011E-03;-1.62357E-01;-1.82392E-01;-1.19002E-01;-3.87669E-02;-1.18710E-01;1.61151E-01;-1.31257E-01;1.27867E-01;-1.15775E-01;5.94205E-02;1.76181E-01;-1.62498E-01;-1.41614E-01;7.98721E-02;3.00796E-02;-2.54343E-02;-7.88847E-02;-1.69161E-01;-3.76061E-02;1.52084E-02;1.68336E-01;-3.05351E-02;-1.90571E-01;-2.00599E-01;8.36062E-02;1.97068E-01;1.17226E-01;3.53116E-03;-7.17307E-02;-1.14209E-01;2.53008E-02;5.26667E-04;8.66048E-02;-7.68962E-02;2.43908E-02;4.66254E-02;1.36842E-01;1.19460E-01;-1.12243E-01;1.18943E-02;-6.96990E-02;1.83508E-02;-1.73030E-01;-1.56969E-01;8.34688E-02;1.39194E-01;-1.51722E-01;-1.63757E-01;1.22642E-01;1.47790E-01;6.25521E-04;-2.11504E-01;-1.73092E-01;-2.03457E-01;-2.09137E-01;-1.52677E-01;2.00515E-01;-3.22630E-03;5.28915E-02;-1.37075E-01;5.88334E-02;1.91088E-01;-9.50392E-03;-1.10742E-02;-4.05977E-02;1.19772E-02;-1.04252E-01;-1.43983E-01;-1.32495E-01;1.02758E-01;-4.49504E-03;1.91239E-01;-1.23787E-01;-4.50948E-02;-1.95972E-01;-1.11180E-01;1.08255E-01;8.81422E-02;-1.46330E-01;1.26659E-01;1.02827E-01;-1.46938E-01;2.07629E-01;2.03520E-01;-5.45907E-02;-9.31918E-02;7.11463E-02;-2.04968E-01;1.07144E-01;7.43001E-02;1.56058E-01;8.29754E-02;-1.55809E-01;2.06127E-01;-2.43150E-02;1.38610E-01;1.55347E-01;1.64600E-01;-2.13240E-01;1.69484E-01;3.65205E-02;5.71546E-02;-1.01778E-01;-2.04109E-01;1.76024E-01;-8.16007E-02;1.65918E-01;-4.00267E-02;-1.55425E-01;-1.73095E-02;6.05750E-03;9.27029E-02;1.50476E-01;-3.71443E-02;-6.25314E-02;-9.65508E-02;1.42474E-01;-1.94709E-01;-5.33449E-02;1.08043E-01;1.95636E-01;3.18737E-02;9.63614E-02;2.15366E-01;1.09573E-01;-2.13723E-01;-1.65067E-01;-1.46680E-01;-1.96316E-01;1.86540E-01;-1.79006E-01;7.66769E-02;-1.75912E-01;-1.41261E-01;2.15419E-01;-6.32302E-02;-4.34825E-02;-9.00902E-02;9.88552E-02;9.90356E-02;1.18213E-02;-6.36804E-02;2.88680E-02;9.58983E-02;1.85165E-01;1.15129E-01;1.90246E-01;8.52947E-02;-2.13563E-01;1.94432E-01;5.67932E-02;-2.38493E-02;-2.03520E-01;-8.28500E-02;-1.56919E-01;1.67909E-01;-9.29180E-02;-1.83952E-01;-1.79943E-01;4.30901E-03;-4.92580E-03;1.24444E-01;-1.19709E-01;1.71500E-01;1.72087E-01;-9.44534E-02;4.88418E-02;6.50811E-02;3.35329E-02;-9.96697E-02;-1.20938E-01;4.79639E-04;-1.11835E-01;7.56958E-03;-1.46564E-01;1.63515E-01;-1.83575E-01;2.28718E-02;-2.01525E-01;1.79791E-01;-9.93737E-02;7.43730E-02;1.24764E-01;-2.09986E-01;-2.10564E-01;-1.00294E-01;1.83764E-01;2.79718E-02;1.40209E-01;-7.38210E-02;-6.93469E-02;1.57413E-01;1.05835E-01;5.71165E-02;2.01210E-01;-1.65844E-01;2.06710E-01;-1.01732E-01;1.19426E-01;-8.18010E-02;-1.45324E-01;1.30272E-01;1.00909E-01;-1.49501E-01;3.90362E-02;6.89045E-02;1.83984E-01;2.28585E-02;-1.84726E-01;1.91808E-01;-1.52756E-01;8.85477E-02;-1.46674E-01;8.85211E-03;-1.02618E-01;2.45583E-03;-7.55842E-02;-8.95124E-02;2.14745E-01;8.68626E-02;-1.52928E-01;-1.25215E-01;-2.02129E-02;-2.27693E-02;1.06957E-01;6.30521E-02;1.15446E-01;-2.51510E-02;-1.74034E-02;-1.47138E-01;-2.07720E-01;1.31502E-01;1.24170E-02;-6.10591E-02;6.45053E-03;4.06163E-02;1.21053E-03;-1.85644E-01;1.77635E-01;-1.49077E-01;1.00998E-01;-1.93533E-02;2.08852E-01;-1.96939E-01;1.94505E-01;1.84374E-01;-1.90713E-01;7.74382E-02;1.55058E-01;-5.11274E-02;1.21739E-01;-2.97342E-02;1.93725E-01;2.08421E-01;2.12221E-01;-8.92291E-02;1.70635E-01;1.93925E-01;2.02386E-01;2.07397E-01;3.84971E-04;1.35504E-01;-1.86108E-01;8.33435E-02;-3.55210E-02;-7.52051E-02;1.47425E-02;9.02611E-02;-3.53295E-02;4.58602E-02;1.72562E-01;-2.14843E-01;-1.25504E-01;-1.68276E-01;-8.89640E-02;-1.56026E-01;8.73445E-02;-1.73359E-01;3.50208E-02;2.68868E-02;-2.10365E-01;1.20201E-01;2.12721E-01;1.08079E-01;1.62964E-01;1.79117E-01;-3.60973E-02;2.00672E-01;-1.82915E-02;-3.77529E-02;8.86725E-02;2.08504E-02;3.31603E-02;4.61672E-02;-1.59032E-02;-1.43821E-01;-2.14922E-01;-1.45881E-01;-2.02343E-01;-1.81086E-01;1.50399E-02;1.49401E-01;-1.61849E-01;-1.96586E-01;-2.07103E-01;-2.11762E-01;-1.86221E-02;7.27382E-02;1.18303E-01;-6.84029E-02;2.02727E-01;1.07836E-01;-1.45833E-01;4.26250E-02;-3.11047E-03;-3.09689E-02;8.55428E-02;-4.52847E-02;2.05943E-01;4.36236E-02;1.88318E-01;-8.23987E-02;9.10038E-02;-1.73134E-01;1.23855E-01;-1.63034E-01;1.97812E-01;-3.37984E-02;-1.96459E-01;1.60104E-01;3.59463E-02;-5.20863E-03;-1.22623E-02;1.10304E-01;5.62511E-02;7.70438E-02;2.11358E-01;1.78412E-02;-1.05881E-01;8.23747E-02;-1.12835E-01;-2.15665E-02;1.74844E-01;1.29949E-02;-1.51645E-01;-1.12631E-01;-1.96563E-01;-1.99951E-01;1.59115E-01;1.81447E-02;-1.57988E-01;1.36877E-01;4.04468E-02;-4.19973E-02;-5.65080E-02;2.07247E-01;-1.83342E-01;-1.94161E-01;1.35342E-01;6.27254E-02;-1.35986E-01;1.39578E-01;-7.80631E-02;1.00909E-01;7.88177E-02;2.07476E-02;-1.60709E-01;-1.30671E-01;-2.14890E-01;-1.33275E-01;-3.58005E-02;1.81393E-01;-2.70773E-02;1.74902E-01;-1.67595E-01;9.22663E-02;-9.79662E-02;-1.14743E-01;-1.98210E-01;-1.34670E-01;1.41224E-02;-1.56777E-01;-1.49045E-01;-9.45392E-02;-1.28443E-01;-1.91811E-01;-1.75478E-01;-2.08206E-01;-1.50241E-01;-4.03623E-02;-1.91569E-01;1.59926E-01;3.86809E-02;1.52417E-01;2.08972E-01;2.10585E-01;-2.04176E-01;-1.99572E-01;-4.03310E-02;1.98593E-01;-1.95661E-02;-1.43917E-02;-6.14391E-02;-1.49840E-01;-1.52089E-01;9.03486E-02;7.26214E-02;-8.13379E-02;2.08325E-01;1.65486E-02;1.00355E-01;1.46584E-01;-7.58748E-02;-1.59191E-02;1.59490E-01;-1.78733E-02;3.90220E-02;-7.14986E-02;4.65255E-02;-1.38400E-01;-1.88616E-01;-1.11581E-01;-5.64381E-02;-2.97224E-02;1.29811E-01;3.14195E-03;5.80918E-02;5.82345E-02;4.25946E-02;-9.91972E-02;1.87311E-01;1.57300E-01;1.68726E-01;-1.35692E-01;-1.97208E-01;1.71919E-01;2.08012E-01;6.90728E-02;3.34162E-02;5.27981E-03;-6.31088E-02;6.13485E-02;1.56566E-01;-2.01144E-01;1.90169E-01;-2.63721E-02;8.94021E-02;7.41374E-03;-2.53953E-02;2.02013E-01;1.17391E-01;-1.66144E-01;-2.05135E-01;2.00272E-01;2.11250E-01;-4.81558E-02;-1.83638E-01;-7.69847E-02;-2.11288E-02;-9.68876E-02;-3.25110E-02;1.16184E-01;-1.40019E-01;1.84509E-01;1.66213E-01;-1.90978E-01;-8.73680E-03;-5.10304E-02;1.65686E-01;-9.46708E-02;-1.22456E-01;1.39821E-01;1.92647E-01;-6.49095E-02;-1.56912E-01;-5.81508E-02;-4.64313E-02;-1.90504E-02;-1.77261E-01;-1.42145E-01;8.02806E-02;-1.40006E-01;-1.14574E-01;2.01656E-01;-1.82918E-01;2.10475E-01;1.27074E-01;-4.47094E-03;-6.39608E-02;-3.40896E-02;4.78058E-02;-9.05964E-02;-1.29792E-01;-2.15666E-01;5.67495E-02;-7.92516E-02;9.19451E-02;1.00699E-01;-1.25193E-02;1.19215E-01;1.50517E-03;1.80665E-01;1.08785E-02;3.24292E-02;1.39060E-01;-1.30083E-01;3.00626E-02;-1.16037E-01;-1.14011E-01;-1.00832E-01;4.91994E-02;1.48969E-01;1.85855E-01;1.00963E-01;1.30024E-01;-6.79672E-02;-2.11444E-01;9.05161E-02;-6.54721E-02;2.09600E-01;-1.69277E-01;1.15305E-01;-1.53892E-01;1.99329E-01;-1.61218E-02;7.61707E-02;-1.81830E-01;4.87485E-02;-1.30461E-01;4.44107E-02;1.76991E-01;-4.14616E-03;-4.37799E-02;-1.88910E-01;1.71554E-02;2.64571E-02;-9.42309E-02;-3.42762E-02;1.91738E-02;1.16637E-01;1.98924E-01;2.44376E-02;2.92602E-02;-2.00224E-01;1.04426E-01;-1.85330E-02;-1.42233E-01;-3.32583E-02;1.73187E-01;8.58355E-03;-2.13892E-01;1.19624E-01;-1.41250E-01;-1.38474E-01;1.07056E-01;-1.07493E-01;1.58254E-01;1.44526E-02;8.80235E-02;1.09131E-01;-1.79779E-01;1.23812E-01;-1.09509E-01;3.79457E-02;-5.98157E-02;1.13911E-01;5.01148E-02;-1.64002E-01;-1.91034E-01;-9.78510E-02;-1.80486E-03;1.52386E-01;1.77937E-01;1.96749E-01;1.34307E-01;1.65085E-01;1.19449E-02;-2.03256E-01;1.40677E-01;-2.74861E-03;7.11570E-02;-1.80319E-01;1.58462E-01;1.94315E-01;-1.29352E-01;1.26908E-01;-1.18002E-01;1.25935E-01;-1.06199E-01;1.65499E-01;7.37598E-02;6.96809E-02;4.62378E-02;-1.30933E-01;8.28740E-02;1.34879E-01;1.95265E-01;-1.72716E-01;-9.50721E-02;-4.24302E-02;8.59974E-02;1.19522E-01;1.98802E-01;-4.47411E-02;-2.97570E-02;-1.88497E-01;1.99109E-01;6.49980E-02;-1.45473E-01;-1.95891E-01;-1.64538E-01;-1.94738E-01;-1.07114E-01;-2.04274E-01;3.73261E-02;1.77782E-01;-6.50620E-02;-4.41280E-02;1.91324E-01;-2.03526E-01;4.89735E-02;5.10190E-02;-6.14154E-02;-6.81926E-02;-1.36472E-01;2.09546E-02;1.88297E-01;5.56773E-02;5.00424E-02;1.09358E-01;8.78536E-02;1.26560E-01;-1.66112E-01;-4.10378E-02;6.62903E-02;1.21815E-01;1.48055E-01;-1.73121E-01;-7.55183E-02;-1.68794E-01;-1.31476E-01;7.42769E-02;-1.63321E-01;-9.74200E-02;-1.43859E-02;-1.96686E-01;1.96612E-02;-9.25094E-02;8.98476E-02;-1.06674E-01;8.01168E-02;-1.05456E-01;-7.05604E-02;-3.36546E-02;6.86312E-02;9.82127E-02;-7.39961E-02;-5.05238E-02;1.89432E-01;-9.75998E-02;-1.12970E-02;-5.50393E-02;-1.93566E-01;3.64641E-02;4.26776E-02;8.52210E-02;1.73018E-01;2.02429E-01;-1.44127E-01;-5.71315E-03;-1.73307E-01;-1.45897E-01;5.89348E-02;-5.81190E-02;-1.89675E-02;-4.67100E-02;-2.20346E-02;-8.12151E-02;9.10938E-02;1.88927E-01;1.25810E-01;-3.96373E-02;-1.53167E-01;1.80774E-01;-6.93918E-02;-1.60216E-01;-1.36544E-01;1.49207E-01;-1.75777E-01;-1.33257E-01;-6.58637E-02;-8.11722E-02;1.52295E-01;-1.73373E-01;-2.07401E-01;-5.32030E-02;-1.44320E-01;1.35491E-01;2.78215E-02;-1.48073E-01;-1.45297E-01;1.95187E-01;-7.49424E-02;-2.04112E-01;-6.88524E-02;1.41071E-01;1.99122E-01;-1.37893E-01;9.09779E-02;1.21975E-01;2.46082E-02;-1.79286E-01;-5.65750E-02;-1.07047E-02;1.02761E-01;3.60878E-02;-1.67199E-01;2.12944E-01;-1.15488E-01;7.16180E-02;-1.38183E-01;-2.06465E-01;6.74732E-02;-1.02398E-01;2.12332E-01;8.94900E-03;1.29547E-01;-7.51663E-02;-1.87540E-01;2.03771E-01;6.47657E-02;-1.71158E-01;1.98901E-01;-1.95649E-01;-1.64743E-01;1.03973E-01;7.05312E-02;8.70669E-02;1.44404E-02;-3.33315E-02;1.26925E-01;-6.61788E-02;-7.13572E-02;-9.96279E-02;1.97791E-01;8.30722E-02;-1.63432E-01;2.05745E-01;-1.54326E-01;2.09512E-01;1.49256E-01;-8.15949E-02;1.58237E-01;1.50005E-01;1.48055E-01;1.50074E-01;-1.27872E-01;-1.49461E-01;7.80967E-02;2.09330E-01;1.64292E-01;1.71406E-01;1.08309E-01;-1.02226E-01;1.19015E-01;-4.89863E-02;-1.43235E-01;-1.27785E-01;1.68199E-01;-1.79216E-01;-1.37206E-01;2.02713E-01;2.03056E-01;1.10220E-01;-1.15443E-01;-4.91713E-02;-1.02866E-01;1.30605E-01;1.79141E-01;1.15902E-01;3.33088E-02;-5.71744E-02;-6.56598E-02;-1.06128E-01;2.09275E-01;8.50196E-02;3.19024E-02;1.01061E-01;1.86452E-01;-1.11696E-01;2.00430E-01;2.31802E-02;-1.88395E-01;1.79245E-01;5.25502E-02;-1.37187E-01;-4.81783E-02;1.68826E-01;-7.72240E-02;1.03694E-01;5.32817E-02;-1.79827E-01;-1.77321E-01;1.88074E-02;-3.29361E-02;1.25144E-01;1.78642E-01;8.18769E-02;-1.65390E-01;-5.53318E-02;-1.83657E-01;-1.10312E-01;1.57516E-01;-1.05039E-01;-1.71826E-02;6.25413E-02;-2.02634E-01;-1.44132E-01;-4.90626E-02;1.86831E-01;-1.54377E-02;5.02696E-02;-3.21519E-02;-1.98101E-02;-1.36228E-01;-9.64897E-02;3.57162E-02;1.25967E-01;1.31233E-01;8.31151E-03;1.99747E-01;2.55850E-02;-9.69714E-02;-1.35295E-01;7.71260E-02;4.45390E-02;-1.40590E-01;-1.95433E-01;-2.15933E-01;1.55844E-01;-1.89060E-01;-2.22181E-02;1.62164E-01;1.30145E-01;-4.95483E-02;-1.28501E-01;1.63139E-01;1.96870E-01;1.00858E-01;-4.76920E-02;3.87693E-02;1.53433E-01;2.07586E-01;6.82410E-02;4.37461E-02;1.65589E-01;-6.45796E-02;-1.26609E-01;2.62997E-02;7.61746E-02;-3.01023E-03;1.22202E-01;-5.85378E-02;-2.47111E-02;5.35252E-02;2.64265E-02;-1.20674E-01;-7.98885E-02;-7.43029E-02;-2.93790E-02;-6.15920E-03;8.21408E-02;-3.15659E-02;-1.10502E-01;-3.78053E-02;-1.39077E-01;1.44045E-01;-1.11742E-01;-2.21234E-02;1.75701E-01;5.04755E-02;1.39448E-01;-3.20071E-02;-1.74683E-01;-1.60085E-01;-1.26772E-01;1.62513E-01;1.47796E-02;-1.40439E-01;1.16206E-01;-1.68859E-02;1.42236E-03;1.55252E-01;-8.69136E-02;-3.14867E-02;1.04682E-01;-5.49523E-02;1.83726E-02;-1.73303E-01;9.94372E-02;1.31540E-01;-1.32768E-01;-4.97192E-02;1.42138E-01;-2.08674E-02;-8.33464E-02;5.46850E-02;1.99397E-02;9.42335E-02;-1.34645E-01;5.57533E-03;2.00421E-01;1.33250E-01;1.53605E-01;-5.02865E-02;3.62078E-02;1.76735E-01;1.72775E-01;-5.90368E-03;-1.55429E-01;3.51315E-02;-1.19079E-01;-1.49179E-01;1.31305E-02;-1.37244E-01;1.65857E-01;1.73105E-01;7.97109E-02;1.36107E-01;1.69067E-01;-1.68686E-01;-5.18068E-02;-4.21349E-02;-5.84940E-02;2.02135E-01;1.19437E-01;-1.68060E-01;-1.55096E-01;-8.97570E-02;-1.88693E-01;-7.19081E-02;-2.16470E-01;-1.81748E-02;2.12753E-01;-1.61254E-02;6.02080E-03;-1.77098E-01;-1.18329E-01;1.49577E-01;-2.15557E-01;5.95964E-02;-2.13071E-01;1.42598E-01;-4.34577E-02;-8.52311E-02;2.16341E-01;-9.63685E-02;-8.54452E-02;-2.81170E-02;1.48474E-01;-4.92859E-03;1.49452E-01;3.04696E-02;-2.13101E-01;-7.91340E-02;1.74377E-01;7.67718E-02;-1.05741E-01;8.75790E-02;1.87577E-01;1.18936E-01;1.41500E-01;6.84806E-02;-1.95967E-01;-1.82565E-01;-4.86348E-02;-2.77712E-02;4.40630E-02;1.21393E-01;8.21770E-02;-8.45121E-02;-1.41747E-02;8.14013E-02;2.05052E-01;9.59110E-02;7.65522E-02;5.97811E-02;1.67592E-01;-5.27292E-02;-1.94393E-01;1.63996E-01;-5.26154E-02;-5.14392E-02;-1.03471E-01;1.55702E-01;7.95216E-02;1.04455E-01;1.89619E-01;-1.40520E-01;2.09140E-01;2.08387E-01;-8.40777E-02;1.84480E-01;1.04505E-01;-1.03446E-01;5.44682E-02;3.74771E-02;-1.84640E-01;-1.94758E-01;-2.11489E-01;5.00136E-02;-1.47852E-01;1.92611E-01;-1.85118E-01;1.65364E-01;-1.50360E-01;-1.78074E-01;-9.57277E-02;1.74542E-01;-1.84636E-02;-1.25646E-01;-1.03252E-01;-2.56443E-02;6.19599E-02;4.66704E-02;1.90274E-01;1.39791E-01;2.14702E-01;-1.95379E-01;1.98486E-01;-1.77004E-01;6.74444E-02;8.05666E-02;-1.37941E-02;-2.12529E-01;4.28811E-02;-9.56704E-02;3.24454E-02;-5.55250E-02;-1.85856E-01;-1.34053E-01;-8.71429E-03;4.73744E-02;-3.71271E-02;-4.72693E-02;-5.19700E-02;-1.91698E-01;9.90068E-02;1.52511E-01;9.97656E-02;-3.29458E-02;8.44335E-02;-6.36424E-02;7.94678E-02;1.13453E-01;-7.39177E-02;-1.02830E-01;1.48428E-01;-1.63424E-01;1.20519E-01;2.13033E-01;-2.11335E-01;1.78026E-01;-1.25649E-01;2.06975E-01;1.67055E-01;-3.07848E-02;8.88698E-02;8.36039E-02;-1.76723E-02;1.90766E-01;-6.59268E-02;-1.15304E-01;-1.64140E-01;-1.40294E-01;1.84044E-01;1.12108E-01;1.69784E-01;5.09029E-02;-1.33250E-01;-3.65370E-02;-1.57882E-01;3.14509E-02;-1.34496E-01;-1.35575E-01;2.64761E-02;-1.51222E-01;-1.48142E-01;-5.32842E-02;2.15057E-01;-8.28283E-02;-1.54449E-02;-1.51581E-01;-1.63663E-01;-1.80522E-01;1.34041E-01;-1.68194E-02;-1.00997E-01;-9.10686E-02;8.09272E-02;2.15017E-01;-2.14688E-01;6.18350E-02;-4.34512E-02;3.80747E-02;1.50895E-02;-1.50518E-01;-4.60763E-03;1.61276E-01;9.31670E-02;1.02635E-01;-4.63507E-02;-5.62674E-02;-1.75709E-01;1.81477E-01;6.49552E-02;-1.87093E-01;-1.39051E-01;3.22264E-02;5.05379E-02;1.61486E-02;-1.39990E-01;-1.81836E-01;-7.67979E-02;4.31911E-02;1.21751E-01;1.98203E-01;-6.35596E-02;-1.08398E-01;-1.87982E-01;-8.20932E-02;-8.01814E-02;-8.84922E-02;-8.93845E-02;2.66558E-02;1.92568E-01;-2.08638E-01;5.86008E-02;1.83050E-01;7.31682E-02;-1.78846E-01;-4.85667E-02;9.87795E-02;-1.66957E-02;-1.40919E-01;-1.61412E-01;1.64250E-01;-3.60197E-02;-1.91553E-01;-1.07590E-01;-1.19715E-01;-3.90478E-02;-1.78082E-01;1.33980E-01;-4.50962E-02;7.39270E-02;-1.11190E-01;2.02043E-01;1.28198E-01;-3.17282E-02;-9.56419E-02;-5.67077E-02;-6.32416E-02;-2.69509E-02;1.09827E-01;3.08208E-02;-7.40532E-02;-8.45957E-02;5.18328E-02;-9.63950E-02;2.44337E-02;-2.07866E-01;6.85082E-02;1.01504E-02;4.65008E-02;-1.76487E-01;1.76382E-01;1.73690E-01;2.39120E-03;8.25024E-02;1.94256E-01;7.76626E-02;-2.16173E-01;-1.79211E-01;1.37111E-01;-1.40834E-01;-1.68760E-02;1.10687E-01;1.09031E-01;-1.88502E-01;-1.54398E-02;6.58989E-02;-1.27404E-01;-1.35776E-01;-2.07903E-01;-1.74559E-01;-2.11921E-01;1.69578E-01;-1.94090E-01;4.38736E-03;1.87277E-01;-9.76112E-02;-7.02956E-02;4.93120E-02;-2.86382E-02;-4.33940E-02;-1.26274E-01;1.62067E-02;4.99244E-02;-2.00924E-01;6.99164E-02;1.21261E-01;1.50133E-01;-1.03087E-01;-9.97303E-02;-1.65071E-01;-2.09762E-01;-1.66451E-01;7.40318E-02;-1.21983E-01;1.54405E-01;-6.92790E-02;-1.51331E-01;5.64038E-02;-2.18451E-02;1.58710E-01;7.41170E-02;-3.98664E-02;6.69054E-02;-2.92963E-02;-8.52829E-02;-1.21358E-01;-1.81905E-02;-5.07331E-02;-1.96267E-01;-1.35079E-02;-1.46981E-01;-8.56088E-02;2.05802E-01;-1.11749E-02;-5.07422E-03;2.10272E-01;-8.42382E-02;8.13433E-02;-1.23041E-01;-1.78473E-03;-2.08080E-01;-4.99364E-02;5.83745E-02;-2.93432E-02;1.46345E-01;-6.77222E-03;8.47818E-02;1.58692E-01;-1.24700E-01;-2.02958E-01;-3.86478E-02;9.11273E-02;1.55042E-01;-2.13868E-01;1.13844E-01;1.42438E-01;-9.50526E-02;-1.61140E-01;-1.80180E-01;-6.51175E-02;1.92912E-01;-1.15895E-01;-1.19062E-01;1.22225E-01;2.14283E-01;1.53255E-01;1.40450E-01;1.04530E-01;1.07255E-01;-1.72725E-01;-1.93224E-02;1.30321E-01;-1.04643E-01;-1.41673E-01;1.27486E-01;2.00567E-01;-1.93797E-01;1.57164E-01;5.27800E-02;-5.20305E-02;-2.16437E-01;-3.16516E-02;-1.70347E-01;-4.81231E-02;1.69791E-01;1.77544E-01;1.75180E-01;2.32239E-02;3.87518E-02;-1.40957E-01;-6.04746E-02;1.76782E-01;-1.57634E-01;-8.19312E-02;-7.46390E-02;1.64582E-01;2.10268E-01;-1.08184E-01;4.93032E-02;-1.33123E-01;3.93224E-02;-1.42337E-01;-3.42426E-02;-6.16041E-02;-1.06205E-01;7.04806E-02;2.03699E-01;-3.59213E-02;1.21939E-01;-5.46550E-02;-1.04858E-01;1.29499E-01;-1.45433E-02;-1.98061E-01;-8.44069E-02;8.52504E-02;2.40144E-02;-1.55477E-01;-1.34554E-01;7.11768E-02;2.13976E-01;1.75735E-01;-3.04806E-02;-7.19236E-03;5.06678E-02;-1.71164E-01;-1.60459E-03;1.61668E-01;8.86279E-03;1.30665E-01;-7.39769E-02;-2.15210E-01;8.32173E-02;-1.42874E-01;-1.29058E-01;-1.78698E-01;4.09883E-02;1.12506E-01;-7.72928E-02;-2.01649E-02;4.67671E-02;-3.04249E-03;2.96680E-02;-6.12418E-02;1.81708E-01;3.70599E-03;1.20704E-02;-5.66699E-02;-2.06580E-01;1.53351E-01;1.49556E-02;-2.66434E-02;-1.70186E-01;1.94143E-01;1.92819E-01;2.03397E-01;-1.87957E-01;1.33128E-01;1.88245E-01;1.52605E-01;1.65592E-01;-1.90589E-01;1.32024E-01;-2.95646E-02;-1.97943E-01;-2.24579E-02;1.62449E-01;-1.37946E-01;-2.69166E-02;-1.10856E-02;-4.14391E-02;7.17287E-02;8.48097E-02;-1.63982E-01;-1.37804E-01;8.11069E-02;1.42137E-01;-1.72866E-01;-8.75103E-02;1.50517E-01;1.29310E-01;4.38061E-02;-9.71051E-02;1.28391E-01;-3.11938E-02;-4.68386E-02;-2.04249E-01;-1.03208E-02;1.74627E-01;-5.58905E-02;5.02760E-02;-8.19929E-03;-8.21044E-03;-9.93504E-02;1.42766E-01;1.21775E-01;-1.16273E-01;1.75414E-01;5.82862E-03;1.00705E-01;7.29583E-02;-1.12681E-01;-1.61951E-01;1.16825E-01;1.64149E-01;1.38236E-01;-9.24556E-02;1.05708E-01;-8.13167E-03;-1.32781E-01;6.52362E-02;-6.17896E-02;1.77474E-02;-1.57194E-01;-1.30407E-01;-8.94561E-02;-1.57082E-01;7.06292E-02;-1.64371E-01;2.63373E-02;2.43759E-02;2.82760E-02;4.34496E-02;8.33302E-02;-1.60710E-01;-1.78439E-01;2.11001E-01;-8.90196E-02;-1.64926E-02;-1.27656E-02;3.00957E-02;3.03244E-02;-1.63454E-01;-1.31911E-01;-3.58521E-02;9.09888E-02;2.09446E-02;1.55648E-01;-1.73167E-01;-2.09547E-01;-5.18520E-02;-7.57305E-02;7.25934E-02;1.43876E-01;1.19033E-01;8.69807E-02;-2.02030E-01;-1.88797E-01;-3.09259E-02;1.60104E-01;8.26917E-02;-7.54979E-02;-1.89831E-01;7.72114E-03;1.09445E-01;1.44321E-01;-2.00067E-01;-1.92578E-02;1.52093E-01;-7.62810E-02;-2.16284E-01;2.16047E-01;-7.33710E-02;-2.14278E-01;-5.77584E-02;4.52885E-02;-1.74344E-01;-7.03142E-02;5.08331E-02;1.80109E-01;1.35699E-01;-1.15658E-01;-1.21142E-01;7.91332E-02;-6.35985E-02;-2.70568E-02;3.82087E-02;1.74253E-01;-8.57399E-03;1.65972E-01;3.17201E-02;1.07049E-01;-5.86180E-02;4.82375E-02;-2.13402E-01;6.15399E-02;1.75880E-01;-1.61591E-01;5.20581E-02;1.96673E-01;-1.53930E-01;-7.23387E-02;-7.70329E-02;-1.49604E-01;1.97719E-01;-9.16119E-02;-2.02149E-01;-7.06904E-02;1.40449E-01;1.39669E-01;7.63421E-02;-4.66501E-02;6.79185E-02;-1.45403E-01;3.05559E-02;3.19491E-02;-2.37881E-02;6.16017E-03;-6.64924E-02;2.04728E-01;6.22265E-02;-1.93869E-01;-2.02368E-01;1.69881E-01;1.63612E-01;-1.58299E-01;-1.67794E-01;1.48879E-01;-5.12022E-02;1.03370E-01;-1.30919E-01;-7.21017E-02;7.95288E-02;1.57311E-01;-8.36735E-02;1.06898E-02;3.20543E-02;5.34171E-03;-1.75684E-01;-9.88128E-02;-2.04427E-01;-1.73500E-02;-2.85953E-02;-8.55954E-02;1.55763E-01;-1.21374E-02;-2.50895E-03;5.58099E-02;6.08758E-02;-7.08140E-02;-3.85441E-02;1.06368E-01;-1.20789E-01;-3.12219E-02;1.82835E-01;9.89033E-02;4.28253E-03;-4.11825E-02;1.92056E-01;6.70076E-02;-1.55437E-01;1.61950E-01;1.92175E-01;-9.62051E-02;1.37848E-01;-1.85253E-01;2.45072E-02;2.14990E-01;1.95933E-01;-7.84661E-02;1.54791E-01;-4.52588E-02;6.85066E-02;1.75358E-01;-1.36898E-01;1.86332E-01;1.68478E-01;-7.15239E-03;-1.34487E-01;-2.03054E-01;-2.13692E-01;-1.63199E-01;6.92982E-02;-9.82413E-02;-1.57386E-01;1.92257E-01;3.37023E-02;-1.23656E-01;-5.19942E-02;-2.15299E-01;7.74083E-02;2.08450E-01;1.75182E-01;1.43228E-01;-1.44417E-01;1.04194E-01;1.37201E-01;-1.58985E-01;-1.26503E-01;9.87694E-02;1.09135E-01;4.07375E-02;-6.32849E-02;1.56871E-01;9.57416E-02;-9.10116E-02;-6.47197E-02;2.10944E-01;1.73908E-02;-1.46966E-01;-9.96983E-03;-1.79213E-01;4.26810E-02;1.46342E-01;-3.98096E-03;-2.07064E-01;1.48020E-01;-4.44756E-02;7.67167E-02;-1.13791E-01;2.04015E-01;-1.11196E-01;-1.37430E-01;-2.09841E-01;-1.95193E-01;-1.57308E-01;-9.53855E-03;-1.87518E-01;-1.61666E-01;-1.78279E-01;1.11113E-01;1.17276E-02;-1.94661E-01;1.53796E-01;1.28161E-01;-1.59842E-02;-1.20226E-02;-1.28644E-01;7.08200E-02;-2.92304E-02;5.49453E-02;-1.29484E-01;-6.13923E-02;5.13947E-02;-1.29188E-01;-3.95341E-02;-9.56642E-02;1.94610E-01;-1.67379E-01;-8.29804E-02;3.14722E-02;7.47185E-02;-8.83900E-02;-3.09293E-02;2.03752E-01;1.92347E-01;-1.92265E-02;1.54614E-01;-8.17023E-03;-1.99172E-01;-8.56134E-02;-4.93406E-02;-4.90036E-02;-1.32614E-01;-1.31585E-01;8.35649E-02;-2.40353E-02;3.50812E-02;-1.46444E-01;1.26277E-01;-3.15055E-02;1.43303E-01;1.56354E-01;-1.54007E-01;8.58301E-02;6.11106E-02;-3.85988E-02;-1.73643E-01;1.79765E-01;-2.83207E-02;-1.72306E-01;-2.15256E-01;1.37447E-03;-2.03021E-01;2.09034E-01;9.26968E-02;2.07193E-01;-1.36496E-03;1.52092E-01;-8.83380E-02;-1.81801E-01;1.60582E-01;1.39338E-01;-2.20812E-02;2.14061E-01;1.95510E-01;-6.96813E-03;1.52547E-01;-2.51051E-02;-8.30526E-02;-1.84780E-01;2.03009E-01;-1.77607E-01;2.70323E-02;-1.74208E-01;-4.48476E-02;-1.92881E-01;1.42067E-02;-1.55608E-01;1.93121E-01;-6.52073E-03;5.92308E-02;1.53215E-01;-1.91939E-01;-1.56304E-01;-1.65089E-02;2.55712E-02;-4.56385E-03;-1.31816E-01;-1.53891E-01;1.84175E-01;-8.71855E-02;-7.17035E-02;8.66148E-02;-1.06794E-01;1.38583E-01;-4.54740E-02;-1.44818E-01;5.73730E-02;1.29431E-01;-9.13446E-02;1.24900E-01;-1.49621E-01;5.89607E-02;4.79978E-02;-1.58507E-01;2.83111E-02;-6.10924E-02;9.33509E-02;1.46686E-01;-3.15983E-02;-1.62336E-01;-4.52928E-02;-1.12868E-01;1.49719E-01;-1.96730E-01;3.49888E-02;1.44213E-01;1.41270E-01;-1.86605E-01;1.16113E-01;8.31042E-03;-1.12750E-01;3.25118E-02;5.67711E-02;2.03655E-02;1.65660E-01;9.25225E-02;1.47015E-01;-9.61213E-02;1.80474E-01;-1.18858E-01;7.57109E-03;-1.67271E-02;-1.53926E-01;7.31560E-02;-1.18774E-01;1.36180E-01;2.03127E-01;1.02944E-01;1.39354E-01;-1.30992E-01;9.94269E-02;-1.82922E-01;2.00008E-01;-1.81534E-01;-1.44649E-01;-1.46737E-01;1.37599E-01;1.61885E-01;-9.51561E-02;6.34408E-02;1.92446E-01;1.37652E-01;1.71703E-01;-1.09485E-01;-1.94470E-01;-1.28230E-01;4.64551E-03;1.79669E-02;-4.60884E-02;-2.10737E-01;-5.03800E-02;1.76298E-01;2.05035E-01;1.62049E-01;-1.22741E-01;-4.68987E-02;2.06743E-01;1.56061E-01;5.63174E-02;-2.53957E-02;-6.29324E-02;-1.11126E-01;-2.02089E-01;-1.65827E-01;7.42514E-02;-1.98585E-01;-1.29907E-01;1.16810E-01;-1.23922E-01;8.72481E-02;-1.33835E-01;-2.03648E-01;2.07512E-01;1.76198E-01;2.78237E-02;-1.41043E-01;-7.23615E-02;2.13417E-01;2.01516E-01;-9.96085E-03;-1.74370E-01;9.52669E-02;-2.35596E-02;-1.44048E-02;-1.04528E-01;-1.66505E-01;1.65016E-01;-1.80189E-02;-2.05125E-02;-1.55211E-01;2.05246E-01;1.61588E-01;-1.12370E-01;1.47318E-01;-1.19735E-01;-1.13851E-01;-1.13679E-02;1.04228E-01;-2.08939E-01;-7.09998E-02;1.63446E-01;1.21868E-01;-1.61690E-01;1.81185E-01;2.01381E-01;4.35718E-02;-4.15867E-02;1.45828E-01;-1.00227E-01;7.81725E-02;1.88940E-01;-7.40527E-02;-1.89052E-01;7.36176E-02;1.55668E-01;2.09485E-01;1.51977E-01;-1.69641E-01;1.48008E-01;-1.87216E-01;-8.28673E-03;1.75858E-02;-4.97553E-02;-4.32679E-02;-5.69792E-02;-4.02948E-02;7.91639E-02;1.85075E-01;1.44104E-01;2.49998E-02;2.68552E-02;-3.38366E-02;5.93395E-02;-1.80143E-01;-4.62541E-02;-2.10626E-01;-1.79461E-01;-1.87606E-01;-6.25179E-02;1.05247E-01;1.42283E-01;-1.97307E-01;8.20808E-02;1.53109E-01;-7.92087E-02;7.94286E-02;-1.20270E-01;1.47222E-01;1.37907E-01;4.57313E-02;1.42102E-01;9.25565E-02;-6.36587E-02;-2.82124E-02;-1.81042E-01;1.07382E-01;2.05952E-01;9.03072E-02;-5.58578E-02;3.76073E-02;2.14083E-01;-1.81267E-01;-5.22935E-02;-6.14148E-03;4.39063E-03;-1.62346E-01;2.02122E-01;8.18682E-02;-1.71007E-01;1.05248E-01;2.02866E-01;4.87795E-02;-8.32567E-02;1.02487E-01;-8.25616E-02;1.02235E-01;4.36854E-02;8.33687E-02;6.99259E-02;-2.77370E-02;4.13691E-02;1.01658E-02;4.56875E-02;1.30208E-01;-1.79900E-01;2.08257E-01;-4.75368E-02;-2.09810E-01;6.92670E-02;1.58261E-01;-8.43929E-02;1.12400E-01;7.03542E-02;3.62443E-02;3.71783E-02;1.43769E-01;1.98267E-01;1.80458E-01;1.31983E-01;1.53788E-01;-9.06008E-03;-1.50178E-01;-6.10335E-02;-6.95917E-02;-5.82819E-02;-1.22999E-01;1.03557E-02;-1.85462E-01;1.82989E-01;1.43459E-01;8.44538E-04;-4.68779E-02;1.18489E-01;-1.03477E-01;1.35219E-01;-4.03982E-02;1.33496E-01;7.50469E-02;-1.53883E-01;1.83356E-01;1.45200E-01;-6.74678E-02;-7.21625E-02;-1.39006E-01;-1.42737E-01;1.20014E-03;-1.79556E-01;-1.96757E-01;-1.52256E-01;-1.17989E-01;1.16998E-01;-2.70001E-02;-1.42437E-03;2.03630E-02;-8.21403E-02;1.89190E-01;-1.69248E-01;2.10376E-01;-2.13731E-01;-1.36499E-01;1.41281E-01;4.94327E-02;1.21100E-01;9.96688E-02;-7.31593E-02;-9.79697E-02;1.24860E-01;-2.12240E-01;-1.24366E-01;1.42425E-01;1.24526E-01;1.99432E-01;-1.82560E-01;-1.14061E-02;-2.10293E-01;-1.41609E-02;-2.12714E-01;1.84484E-01;1.02838E-01;1.54178E-01;1.47101E-01;-6.09711E-02;7.71122E-02;1.85045E-02;8.51709E-02;1.18534E-02;1.52370E-02;1.21818E-01;8.88830E-02;1.40509E-01;-9.10851E-02;1.09397E-01;1.89115E-01;1.84726E-01;-3.80888E-02;9.49814E-02;1.99553E-01;-1.91011E-01;2.83507E-02;-1.66014E-01;2.06189E-01;1.82375E-01;-3.59706E-02;1.98059E-01;1.67823E-01;3.02064E-02;-2.72635E-02;-1.48532E-01;3.34372E-02;-1.81593E-01;-1.20648E-01;-1.54098E-01;9.00914E-02;4.84587E-02;5.73425E-02;-1.32634E-01;-7.88846E-02;-5.70844E-02;-1.70560E-01;5.72338E-02;-1.73754E-01;2.13466E-01;1.89346E-01;-1.58404E-01;2.16136E-01;-1.64588E-01;-2.18959E-02;4.12272E-02;2.99708E-02;-2.06022E-01;-8.35955E-02;3.90671E-02;-2.08773E-01;7.90679E-02;-3.49986E-02;-1.58044E-01;-4.69522E-02;-1.80158E-01;-1.48576E-01;9.85320E-02;2.98583E-02;1.91763E-02;-1.51726E-01;1.26402E-01;8.97050E-02;-7.93692E-02;8.68845E-02;-2.05430E-01;-2.15659E-01;-1.53193E-01;-1.93163E-01;9.88533E-02;7.59938E-02;-1.42229E-01;1.13973E-01;-1.06482E-01;1.40695E-01;1.80589E-02;1.10416E-01;6.00155E-02;6.85807E-02;-1.53615E-01;7.68904E-02;-1.84107E-01;6.53173E-02;2.80211E-02;-1.04073E-01;1.05067E-01;-1.09242E-01;9.52268E-02;1.97752E-02;1.82782E-01;1.60053E-01;1.35956E-01;-2.81065E-02;2.07076E-01;-1.81668E-01;-6.05811E-02;-1.57099E-01;1.25616E-02;-1.69624E-02;-1.75124E-01;-5.19996E-02;-1.56357E-01;-1.35467E-01;1.97881E-01;-2.08514E-01;1.17645E-03;5.01085E-02;1.84154E-01;1.35038E-01;-1.35667E-01;-1.25030E-01;-9.88485E-02;-1.74551E-01;1.99896E-01;1.57208E-01;1.60752E-01;-1.54720E-01;2.16318E-01;-8.52690E-02;-1.67277E-01;3.05993E-02;1.01311E-01;-2.01840E-01;-1.14694E-01;-1.51510E-01;-1.95301E-01;-1.42449E-01;-1.64518E-01;2.09939E-01;7.94925E-03;-1.52958E-01;1.14475E-01;8.13958E-02;2.03845E-01;1.89638E-01;-1.64449E-01;1.68418E-01;-2.08823E-01;1.16349E-01;-2.12411E-01;-1.75662E-02;1.65147E-01;-8.47244E-02;1.94507E-02;1.88077E-01;1.36797E-01;-1.39969E-01;-1.51222E-01;3.09463E-02;5.00722E-02;-1.15532E-01;2.28932E-02;3.20876E-02;-1.94503E-01;-1.43530E-02;5.94069E-02;-2.05368E-02;-1.83049E-02;-1.84236E-01;-1.92551E-01;-1.20317E-01;2.11518E-01;-1.52317E-01;8.84105E-02;-1.98415E-01;1.59253E-01;-1.13960E-01;4.61594E-02;-5.68146E-03;-4.64327E-02;1.69817E-01;2.09845E-01;-1.07916E-03;1.02915E-02;-2.04730E-01;-1.06217E-02;-1.47269E-01;-9.54944E-03;-1.69492E-01;-1.48160E-01;-3.87841E-02;1.34442E-01;-4.41220E-02;-1.08393E-01;1.56674E-01;-6.14882E-02;-2.99910E-02;1.40951E-01;2.11692E-01;-7.27819E-02;1.89140E-01;1.99355E-01;1.30131E-01;6.27397E-02;1.08697E-01;-1.56675E-01;-1.62858E-01;-1.88472E-01;-1.41308E-01;-1.80079E-01;5.95297E-02;1.81580E-01;-8.38274E-02;1.05952E-01;-1.66965E-01;-3.40075E-02;2.11278E-01;4.48426E-02;-8.34071E-02;6.73284E-03;-1.27343E-01;-6.50849E-02;9.74372E-02;-1.50804E-02;-8.91640E-02;-8.49502E-02;1.04834E-01;1.43083E-01;-2.09185E-01;1.06509E-01;1.87088E-01;-1.29073E-02;2.05700E-01;2.10877E-01;4.54181E-03;3.62583E-02;4.74136E-02;2.14421E-01;-3.68103E-02;8.66335E-02;-6.12740E-03;1.79033E-01;-1.65912E-01;-3.14889E-02;-2.02729E-03;-1.36505E-01;5.96857E-02;-1.20726E-01;1.95154E-02;1.09248E-01;-1.88151E-01;-1.97436E-01;1.55307E-01;-1.42418E-01;6.34062E-02;4.82814E-02;-1.11593E-01;-1.63046E-01;2.29725E-02;1.16377E-02;1.88635E-01;-6.41079E-03;1.60867E-01;6.25396E-02;8.59933E-02;-5.32180E-02;-4.88187E-03;4.94631E-02;-3.52232E-02;-1.24659E-01;-1.43624E-01;-1.20201E-01;-1.13185E-01;1.76696E-01;3.38162E-03;1.46928E-01;-2.29982E-02;-7.07417E-02;-9.70655E-02;-1.07422E-02;-1.61669E-01;1.68979E-01;-8.79492E-02;1.94551E-01;1.92731E-01;-1.19091E-01;1.84837E-01;4.11342E-02;-2.11679E-01;-1.26502E-01;-3.71047E-02;8.33030E-03;8.73353E-02;2.14762E-01;-3.34026E-02;1.43368E-01;4.22399E-02;-1.70270E-01;1.81755E-01;-2.08685E-01;1.21096E-02;3.19857E-02;1.65264E-01;1.30489E-01;1.14716E-01;1.92679E-01;-1.91224E-01;9.30787E-02;4.43051E-02;7.89418E-02;-1.08325E-02;-1.32785E-01;1.94946E-01;-7.41009E-02;1.33994E-01;-2.86359E-02;-8.64980E-02;-1.16598E-01;-1.07101E-01;9.17407E-02;-9.67503E-03;-1.93769E-01;9.26197E-02;1.72638E-01;9.13771E-02;-1.04787E-02;9.08222E-02;-1.76301E-01;2.15014E-01;-1.74351E-01;-9.73661E-03;7.70338E-02;1.20143E-01;2.05879E-01;1.58670E-01;2.29083E-02;-9.29259E-02;-3.85219E-02;-9.48639E-02;-1.32934E-01;1.75711E-01;-1.60923E-01;-1.06394E-01;-1.71121E-01;-9.26952E-02;1.10476E-01;1.51595E-01;8.87217E-02;4.76664E-02;-8.64594E-02;1.86537E-01;-1.85782E-01;-8.57085E-02;1.42578E-01;1.14691E-01;-1.29967E-01;1.23145E-02;1.43499E-01;-1.54245E-02;-1.51675E-01;-5.91823E-02;4.88633E-02;-9.19674E-02;-1.49892E-01;1.37593E-01;1.96465E-01;-1.55034E-01;4.23147E-02;1.79294E-01;7.88618E-02;1.47728E-01;1.52793E-01;1.73711E-01;1.02008E-01;2.23871E-02;1.16643E-01;1.67689E-02;1.97670E-01;-6.87128E-02;9.45273E-02;-5.43498E-02;4.43939E-02;7.43853E-02;1.01364E-01;-1.57422E-01;1.72897E-01;1.72542E-01;9.35276E-02;1.86993E-01;1.34001E-01;-1.33483E-01;-5.51303E-03;-3.60292E-02;-2.13571E-01;1.77774E-01;-9.68355E-03;1.86703E-01;2.47934E-02;1.16782E-01;5.08545E-02;1.92377E-01;-2.07695E-01;-8.31518E-02;-2.62457E-02;-1.02210E-01;2.19680E-02;2.13171E-01;1.84208E-01;5.50162E-02;-1.11830E-01;9.05035E-02;5.60199E-02;8.54667E-02;1.50794E-01;-8.66494E-03;-1.77442E-01;1.75827E-01;6.25175E-02;-1.99219E-01;-2.15803E-01;3.27238E-02;1.00270E-01;7.42340E-02;-1.64853E-01;1.07297E-02;-3.87068E-02;-1.08171E-01;-1.51287E-01;1.17453E-01;-2.64654E-02;-1.82289E-01;-1.89144E-01;-6.80332E-02;1.65747E-01;4.24056E-03;-1.90566E-01;1.13736E-01;-5.12491E-02;-1.00507E-01;-1.33151E-01;2.04732E-03;1.99063E-01;-1.32248E-01;2.49056E-02;1.66648E-01;-2.49822E-02;-8.22292E-02;-2.15150E-01;-1.46387E-01;1.06825E-01;-5.23366E-02;-7.56846E-02;8.12742E-02;7.22311E-03;-1.93052E-01;-1.87556E-02;8.95023E-02;1.28486E-01;1.35797E-01;1.80523E-01;4.50460E-02;-1.13555E-01;-1.69484E-01;-6.86010E-02;-1.72946E-01;-1.65146E-01;1.18456E-01;-7.21431E-02;1.68502E-01;-2.10540E-01;1.30831E-01;-1.37891E-02;-2.35203E-03;-1.57607E-01;-1.36181E-01;-6.71790E-02;3.18299E-02;9.17996E-02;-1.39295E-01;-1.96770E-02;-2.03765E-01;-8.51131E-02;1.43602E-01;1.91807E-01;-7.04939E-02;7.02965E-02;5.95570E-02;1.09295E-01;-1.91810E-01;1.36688E-01;4.66847E-02;1.91771E-02;1.33308E-01;9.48638E-02;-1.65780E-01;2.60336E-02;1.40535E-01;1.43749E-03;-1.13961E-01;-2.09528E-01;9.18959E-02;-1.14650E-04;-2.07496E-01;1.59216E-01;-1.03434E-01;1.88261E-02;1.72370E-01;2.03932E-01;-1.46982E-02;7.31430E-02;-1.20645E-01;-1.12711E-01;2.03307E-01;-1.24899E-01;1.50400E-02;-3.37776E-02;7.94524E-02;1.78181E-01;-9.88436E-02;1.17329E-02;-1.18197E-01;-6.40127E-02;1.44105E-02;-1.45037E-01;1.99396E-01;-1.11684E-01;-1.87137E-01;1.01301E-01;1.06956E-01;6.12597E-02;-2.12750E-01;-1.90212E-01;1.25314E-01;1.72926E-01;-1.60601E-01;-2.08616E-07;-1.04278E-01;-4.38607E-02;-2.16381E-01;-4.24400E-02;-1.08975E-01;1.77014E-02;2.42996E-02;-3.05016E-02;5.22726E-02;2.75349E-02;-1.01246E-01;-1.22363E-02;-1.11244E-01;-2.67384E-02;7.08690E-02;9.01239E-02;-1.74612E-01;-1.29693E-01;2.10318E-01;-1.00683E-01;2.15877E-01;-1.20908E-01;3.55237E-02;-2.80327E-02;-3.94924E-02;-2.44770E-02;-1.64443E-02;1.87872E-03;-8.04060E-02;-1.29498E-01;1.16569E-01;-3.85230E-02;7.88019E-02;-1.36185E-01;-2.12907E-01;1.33225E-01;-2.92487E-02;-1.04847E-01;7.46937E-02;1.62487E-01;4.61544E-02;-1.77732E-01;-8.99220E-02;-8.66833E-02;-1.73453E-01;1.18091E-01;3.30367E-02;6.57942E-02;1.27261E-01;4.65607E-02;1.22677E-01;-6.81209E-02;-1.67340E-01;-7.87280E-02;8.56109E-02;1.36955E-01;-1.84600E-01;1.64489E-01;-1.61966E-01;1.16978E-01;1.79420E-02;1.07017E-02;6.79193E-02;-1.67524E-01;-4.09246E-02;-4.11993E-02;1.75216E-01;-1.50837E-01;6.27678E-02;4.47522E-03;-9.55062E-02;-1.20338E-01;1.29638E-01;-2.07960E-01;1.36563E-01;-6.69207E-02;5.01901E-02;-1.16407E-01;5.01672E-02;2.85618E-02;2.13036E-01;-1.92068E-01;-4.44681E-02;3.97423E-02;-1.74463E-01;-1.06177E-01;1.31811E-01;2.00594E-01;-6.27379E-03;6.76319E-02;-1.81449E-01;-1.10917E-01;-1.14179E-01;1.96611E-02;-9.13049E-02;4.91839E-02;-5.46432E-02;-1.42579E-01;3.47380E-02;1.71320E-02;-1.08797E-01;2.02246E-01;-1.74662E-02;-1.74892E-01;-1.89022E-01;1.29115E-01;-2.73481E-04;1.73817E-01;1.82746E-01;-8.93077E-02;-1.74078E-01;-1.75869E-01;-9.21088E-02;-1.85197E-01;1.14987E-01;-1.28194E-01;-1.18181E-01;-1.76174E-01;-1.36459E-01;1.72706E-01;-1.66367E-01;7.60865E-02;8.57693E-03;1.45161E-01;-8.78102E-02;-1.64322E-01;8.39613E-02;-1.15706E-01;1.09197E-01;-1.61377E-01;-2.37800E-02;1.68562E-01;6.71228E-02;6.66055E-02;-1.37456E-01;-2.12293E-01;-7.31222E-02;1.59621E-02;-1.93146E-01;1.90297E-01;1.27061E-01;1.57222E-01;1.12297E-01;2.92434E-02;-1.64915E-01;-1.16362E-01;4.29861E-02;9.27903E-02;2.66841E-02;-8.85627E-02;2.12136E-01;4.04117E-03;-9.52634E-02;8.98498E-02;8.31230E-02;1.50346E-02;1.98458E-01;6.76448E-02;-1.18229E-01;3.75891E-03;1.27790E-01;1.68415E-01;-2.23058E-02;-2.27263E-02;3.15686E-02;1.40099E-01;-9.22425E-02;3.48618E-02;1.41084E-01;-7.91100E-02;1.75881E-03;-6.29568E-02;-1.45579E-01;7.21383E-03;8.55934E-02;0.00000E+00;0.00000E+00;0.00000E+00;0.00000E+00;0.00000E+00;0.00000E+00;0.00000E+00;0.00000E+00;0.00000E+00;0.00000E+00;0.00000E+00;0.00000E+00;0.00000E+00;0.00000E+00;0.00000E+00;0.00000E+00;0.00000E+00;0.00000E+00;0.00000E+00;0.00000E+00;0.00000E+00;0.00000E+00;0.00000E+00;0.00000E+00;0.00000E+00;0.00000E+00;0.00000E+00;0.00000E+00;0.00000E+00;0.00000E+00;0.00000E+00;0.00000E+00;0.00000E+00;0.00000E+00;0.00000E+00;0.00000E+00;0.00000E+00;0.00000E+00;0.00000E+00;0.00000E+00;0.00000E+00;0.00000E+00;0.00000E+00;0.00000E+00;0.00000E+00;0.00000E+00;0.00000E+00;0.00000E+00;0.00000E+00;0.00000E+00;0.00000E+00;0.00000E+00;0.00000E+00;0.00000E+00;0.00000E+00;0.00000E+00;0.00000E+00;0.00000E+00;0.00000E+00;0.00000E+00;0.00000E+00;0.00000E+00;0.00000E+00;0.00000E+00;-3.25848E-02;-7.44454E-02;-2.65502E-01;-1.20624E-01;1.22112E-01;2.03790E-01;9.51159E-02;1.23660E-01;6.04790E-02;-1.63654E-01;-1.70066E-01;-1.86499E-01;-1.78909E-01;2.72631E-01;-1.50612E-01;-1.20066E-02;-1.30302E-01;1.64318E-01;-3.97747E-02;2.27405E-01;-1.07599E-01;-2.24633E-01;1.12316E-01;1.38147E-01;-1.96585E-01;1.29389E-01;-8.18616E-02;-3.90751E-02;1.42939E-01;8.15921E-02;5.24142E-02;2.31150E-01;-1.75683E-01;2.33941E-01;-1.37276E-01;7.89312E-03;2.88107E-01;-6.92603E-03;2.32954E-01;2.36679E-01;-2.09093E-01;-1.19953E-01;-6.84981E-02;-8.81904E-03;2.29124E-01;-1.75261E-01;-2.42560E-01;2.14136E-01;1.62304E-01;2.50713E-01;2.28690E-02;3.74905E-02;-1.62204E-01;1.10064E-01;1.13800E-01;8.91237E-02;-2.84086E-01;-5.47505E-02;1.17613E-01;-7.36572E-02;-1.06930E-01;1.55075E-01;-5.74383E-02;9.99818E-02;1.98051E-02;-4.34071E-03;-1.20470E-01;3.74559E-02;-1.76479E-01;1.47428E-01;-2.47100E-01;2.92484E-01;2.84800E-01;-9.51281E-03;-5.33889E-02;2.19948E-01;-2.19678E-01;-2.53946E-01;2.69965E-01;2.81870E-01;-1.57252E-01;-1.44548E-01;-1.12167E-01;2.69892E-02;-1.21382E-01;7.98615E-02;5.28987E-02;1.24028E-01;-8.76465E-03;2.87422E-02;-1.91780E-01;-5.56837E-02;2.02529E-01;1.32948E-01;-7.43080E-02;-2.72265E-01;2.11992E-02;-1.55822E-01;1.60834E-01;-2.37493E-01;1.89478E-01;1.31255E-01;-8.67539E-02;-6.10495E-03;-2.80839E-01;-2.24890E-01;2.86346E-01;-1.88414E-01;-7.21513E-02;1.50400E-01;1.97249E-01;1.05768E-01;-1.02648E-01;1.67039E-01;-2.82030E-01;-4.72937E-02;3.07789E-02;2.57369E-01;-2.69132E-01;1.20423E-01;-1.99870E-02;1.61558E-01;-1.55098E-01;-1.93404E-01;-7.95586E-02;1.25246E-01;-2.28816E-01;-1.19140E-01;2.81245E-01;1.71726E-01;-2.54792E-01;2.67825E-01;-1.95047E-01;2.53398E-01;2.59346E-01;-2.28095E-01;1.06867E-01;-2.19386E-01;2.85050E-02;2.69050E-01;-6.34425E-02;2.73967E-01;-1.76249E-01;7.72148E-03;1.22037E-01;-1.90493E-01;1.06485E-01;2.22090E-01;9.03508E-02;-6.46557E-02;1.72920E-01;4.78002E-02;-2.15971E-01;-1.48887E-01;1.83427E-02;-1.95343E-01;2.75398E-01;-1.08674E-01;-2.02431E-01;-1.96816E-01;-1.82049E-01;-6.32337E-02;1.34146E-01;-2.83355E-01;-1.22021E-01;-2.41366E-01;-5.44960E-02;-6.39447E-02;-1.49462E-01;-1.68421E-01;1.71176E-01;2.00899E-01;2.10526E-01;-2.51597E-01;8.42937E-02;-1.94076E-01;9.69570E-02;-2.54046E-01;-1.14150E-01;2.47072E-01;1.26938E-01;-2.68765E-01;-8.60405E-03;-7.42723E-02;-3.34119E-02;-7.64955E-02;2.71821E-01;8.81171E-03;-5.30587E-02;8.48794E-02;2.38616E-01;8.39197E-02;-6.59197E-02;3.87083E-02;-2.05918E-01;5.44509E-02;-6.41440E-02;2.69890E-01;-4.93874E-02;2.88431E-01;2.85036E-01;-9.13946E-02;6.39504E-02;2.09242E-01;-2.29067E-01;1.11609E-01;3.25450E-03;2.36697E-01;-4.14414E-02;-1.05149E-01;2.79776E-01;-7.95151E-02;-2.88084E-01;-2.23733E-01;8.72830E-03;-1.26031E-01;2.23447E-01;3.16070E-02;-1.51778E-01;1.31734E-01;3.33661E-02;-1.70653E-01;-1.73457E-01;-1.83467E-01;-2.23834E-01;2.42912E-01;5.09180E-02;1.48960E-01;-3.01414E-02;1.20148E-02;-2.85807E-01;-2.14083E-01;6.11296E-02;4.29900E-02;-1.60615E-01;-2.15894E-01;-1.10534E-01;1.61397E-01;9.30518E-02;-1.57556E-01;-1.34704E-03;2.28945E-01;-2.41278E-01;2.15748E-01;-2.08667E-01;2.83774E-01;-2.01877E-01;-1.18370E-01;1.45984E-01;-1.93582E-01;9.96292E-04;2.61030E-01;-1.50265E-01;2.56032E-01;8.61758E-02;-1.87550E-02;-2.47874E-02;1.26043E-01;9.28302E-02;-1.18702E-01;7.39668E-02;1.13047E-01;-9.86033E-02;-2.78539E-01;-3.67326E-02;2.78864E-01;-1.13090E-01;1.02228E-01;-3.20780E-03;1.28738E-01;-2.20514E-01;1.50937E-01;-2.82298E-01;-1.35607E-01;-1.18763E-01;-1.85989E-01;-2.19726E-01;1.53206E-01;-2.57587E-01;-3.27284E-02;5.79581E-02;-1.99547E-02;-1.72487E-01;-2.00907E-01;2.92544E-01;2.57077E-01;2.55510E-01;1.85448E-01;1.70680E-01;7.18608E-03;-2.83050E-01;2.73560E-01;2.52858E-01;1.39806E-01;1.23993E-02;-1.10165E-01;-4.00528E-02;2.75473E-01;1.12230E-01;5.99560E-02;1.20868E-01;2.17783E-01;-1.75194E-02;8.97508E-02;2.15246E-01;2.36693E-01;3.12434E-02;-8.27707E-02;-1.34297E-01;-2.45010E-01;7.84427E-02;6.64428E-02;-8.22609E-02;-7.30125E-02;-1.66880E-01;2.34848E-01;2.07707E-01;-1.20903E-01;-2.59314E-01;-1.94119E-01;7.86514E-02;-2.31503E-01;-5.39680E-02;8.03233E-02;-1.32223E-01;2.40681E-01;-1.46609E-01;9.35513E-02;-2.63192E-02;2.31793E-01;-1.54412E-01;1.21733E-01;9.19256E-02;-9.08517E-02;-2.48666E-02;-1.11899E-01;-3.41073E-02;-9.91185E-02;1.80666E-01;5.87508E-02;1.07068E-01;2.39973E-01;-1.86916E-01;5.74574E-02;-2.71248E-01;-2.65084E-01;-5.23167E-02;-8.87096E-02;-2.43398E-01;-5.16771E-02;1.63871E-01;-2.52490E-01;-2.23040E-01;-2.03714E-01;-2.68482E-01;-1.47064E-01;6.66046E-02;2.73177E-01;-1.40845E-01;7.35406E-02;1.19076E-01;1.36118E-01;2.69628E-02;-1.62679E-01;-2.07741E-01;2.72255E-01;7.07439E-02;2.23268E-01;2.78682E-01;2.41256E-01;-8.59109E-02;-2.12991E-01;-2.30359E-01;-2.60893E-01;1.98447E-02;8.02141E-02;-2.82482E-01;-1.19788E-01;3.99181E-02;-1.98427E-01;2.40084E-01;-5.63713E-02;-2.87404E-01;1.67468E-01;0.00000E+00;0.00000E+00;0.00000E+00;0.00000E+00;0.00000E+00;0.00000E+00;Control_id_x